// #### Generated By: http://www.cufonfonts.com ####
/*!
 * The following copyright notice may not be removed under any circumstances.
 * 
 * Copyright:
 * Copyright 1989,1990 URW Unternehmensberatunge and The Compa
 */
Cufon.registerFont({"w":1098,"face":{"font-family":"Frutiger Bold","font-weight":700,"font-stretch":"normal","units-per-em":"2048","panose-1":"2 11 8 0 0 0 0 0 0 0","ascent":"1638","descent":"-410","x-height":"27","bbox":"-72 -1722 1952 440.042","underline-thickness":"101","underline-position":"-51","unicode-range":"U+0020-U+0131"},"glyphs":{" ":{"w":569},"!":{"d":"557,-252r0,252r-270,0r0,-252r270,0xm530,-393r-219,0r-45,-973r307,0","w":741},"\"":{"d":"326,-926r-193,0r-47,-549r289,0xm700,-926r-192,0r-47,-549r287,0","w":834},"#":{"d":"991,-1366r-61,348r184,0r-33,184r-184,0r-47,273r184,0r-33,184r-184,0r-65,377r-211,0r65,-377r-200,0r-68,377r-209,0r66,-377r-185,0r33,-184r184,0r47,-273r-184,0r33,-184r184,0r62,-348r211,0r-62,348r201,0r61,-348r211,0xm688,-834r-203,0r-47,273r201,0"},"$":{"d":"1024,-408v0,272,-180,386,-426,418r0,172r-109,0r0,-166v-152,0,-281,-20,-387,-59r25,-248v138,62,237,95,362,86r0,-379v-165,-62,-266,-89,-355,-208v-38,-51,-56,-117,-56,-197v0,-254,187,-358,424,-381r0,-176r106,0r0,170v120,2,228,17,324,45r-25,229v-86,-37,-186,-58,-299,-63r0,344v205,68,416,147,416,413xm598,-209v80,-19,161,-77,160,-172v-2,-106,-77,-134,-160,-172r0,344xm502,-1165v-77,19,-160,62,-160,151v0,101,77,125,160,160r0,-311"},"%":{"d":"348,-1376v195,0,258,161,258,352v0,194,-62,352,-258,352v-193,0,-258,-158,-258,-352v0,-191,63,-352,258,-352xm248,-1008v0,102,5,221,100,224v69,2,101,-88,101,-240v0,-161,-34,-242,-101,-242v-67,0,-100,86,-100,258xm426,63r-135,0r776,-1493r133,0xm1139,-694v196,-3,258,161,258,354v0,197,-62,347,-258,350v-191,3,-256,-161,-256,-350v0,-196,59,-350,256,-354xm1239,-334v0,-156,-32,-248,-100,-248v-71,0,-101,100,-101,256v0,149,34,224,101,224v67,0,100,-77,100,-232","w":1483},"&":{"d":"1341,-741v-10,206,-71,346,-172,467r242,274r-330,0r-96,-111v-185,146,-380,177,-607,93v-142,-53,-259,-177,-257,-365v2,-212,118,-306,285,-371v-90,-87,-183,-172,-183,-321v0,-224,197,-316,422,-316v220,0,387,97,387,318v0,77,-25,144,-74,199v-49,55,-115,106,-196,153r260,281v49,-77,77,-177,84,-301r235,0xm391,-383v0,127,106,213,234,213v75,0,152,-31,233,-92r-309,-342v-78,50,-158,108,-158,221xm639,-1200v-108,-4,-201,101,-141,206v30,52,68,84,112,128v123,-61,185,-129,185,-203v0,-84,-70,-128,-156,-131","w":1425},"'":{"d":"326,-926r-193,0r-47,-549r289,0","w":461},"(":{"d":"352,-541v0,405,147,681,289,957r-248,0v-166,-273,-309,-535,-309,-946v0,-387,145,-672,309,-945r248,0v-144,260,-289,543,-289,934","w":727},")":{"d":"643,-530v0,410,-143,674,-309,946r-248,0v156,-303,289,-534,289,-957v0,-394,-140,-671,-289,-934r248,0v170,281,309,548,309,945","w":729},"*":{"d":"858,-836r-166,119r-143,-246r-150,246r-166,-119r195,-211r-278,-63r63,-197r264,119r-26,-287r200,0r-26,287r262,-110r61,188r-278,63"},"+":{"d":"453,-621r-383,0r0,-178r383,0r0,-375r188,0r0,375r385,0r0,178r-385,0r0,375r-188,0r0,-375"},",":{"d":"444,-270r-172,491r-229,0r123,-491r278,0","w":547},"-":{"d":"500,-403r-500,0r0,-220r500,0r0,220","w":500},".":{"d":"414,-268r0,268r-279,0r0,-268r279,0","w":547},"\/":{"d":"147,416r-219,0r666,-1891r217,0","w":893},"0":{"d":"549,-1386v439,0,504,463,467,902v-24,283,-167,507,-467,507v-376,0,-477,-326,-477,-703v0,-375,104,-706,477,-706xm682,-264v83,-152,75,-412,54,-632v-12,-125,-57,-285,-187,-286v-131,-1,-177,161,-190,283v-20,184,-14,406,25,565v25,101,79,152,165,152v59,0,103,-27,133,-82"},"1":{"d":"770,0r-274,0r0,-1065r-232,197r-141,-181r407,-317r240,0r0,1366"},"2":{"d":"522,-1386v254,0,434,133,434,387v0,217,-164,410,-287,548v-78,88,-158,166,-237,236r563,-4r0,219r-915,0r0,-229r208,-191v93,-90,243,-247,314,-368v40,-68,62,-128,62,-181v0,-120,-91,-196,-209,-196v-105,0,-214,38,-326,114r-23,-241v143,-63,281,-94,416,-94"},"3":{"d":"702,-17v-191,64,-431,44,-616,-10r16,-235v104,46,207,69,308,69v144,-1,286,-56,284,-202v-2,-197,-231,-208,-434,-197r0,-223v191,8,431,-6,428,-195v-2,-120,-118,-161,-237,-161v-117,0,-221,24,-312,71r-16,-225v342,-113,855,-100,848,301v-3,166,-111,278,-254,307v145,45,181,68,232,179v61,131,43,299,-45,393v-54,58,-120,101,-202,128"},"4":{"d":"1063,-485r0,209r-176,0r0,276r-275,0r0,-276r-583,0r0,-232r508,-858r350,0r0,881r176,0xm618,-485r7,-570v0,-28,3,-59,10,-94v-12,33,-22,60,-33,80r-323,584r339,0"},"5":{"d":"408,-668v-97,1,-162,17,-248,39r12,-729r793,0r0,213r-533,0r-8,271v268,-27,463,63,548,246v52,112,49,283,-5,392v-83,168,-261,259,-504,259v-129,0,-237,-14,-324,-43r6,-250v94,46,188,69,281,69v161,0,288,-66,291,-229v3,-163,-149,-238,-309,-238"},"6":{"d":"565,23v-359,0,-476,-262,-477,-621v0,-236,43,-425,122,-571v95,-177,329,-248,594,-203v51,9,99,20,146,33r-35,221v-158,-84,-385,-79,-471,56v-48,76,-79,175,-88,300v82,-132,289,-172,444,-96v141,69,222,217,222,422v0,290,-166,459,-457,459xm563,-182v129,0,182,-123,182,-250v0,-135,-59,-252,-192,-252v-127,0,-180,114,-180,240v0,134,56,262,190,262"},"7":{"d":"514,0r-303,0r508,-1147r-615,0r0,-211r889,0r0,211"},"8":{"d":"987,-1049v-2,160,-103,271,-231,312v161,41,270,168,270,360v0,268,-202,400,-471,400v-263,0,-483,-121,-483,-385v0,-188,102,-313,258,-351v-131,-35,-234,-156,-234,-313v0,-249,204,-360,451,-360v233,0,443,102,440,337xm555,-176v113,1,197,-77,195,-191v-3,-148,-106,-189,-228,-235v-92,44,-174,99,-174,225v0,121,84,199,207,201xm549,-1192v-96,0,-192,65,-187,162v7,134,105,164,211,211v80,-47,149,-93,152,-203v3,-101,-78,-170,-176,-170"},"9":{"d":"532,-1386v356,0,476,264,476,618v0,443,-114,787,-555,791v-113,0,-216,-15,-308,-46r33,-223v170,85,383,80,471,-62v49,-79,79,-181,90,-306v-53,95,-141,143,-262,143v-252,0,-409,-204,-405,-455v4,-296,161,-460,460,-460xm543,-684v122,0,178,-109,178,-231v0,-125,-57,-267,-184,-267v-129,0,-191,131,-189,258v2,128,66,240,195,240"},":":{"d":"414,-268r0,268r-279,0r0,-268r279,0xm414,-1014r0,269r-279,0r0,-269r279,0","w":547},";":{"d":"446,-270r-174,491r-229,0r123,-491r280,0xm449,-1014r0,269r-279,0r0,-269r279,0","w":547},"<":{"d":"954,-1255r0,256r-612,303r612,303r0,256r-886,-451r0,-217","w":1024},"=":{"d":"70,-465r0,-178r956,0r0,178r-956,0xm70,-778r0,-178r956,0r0,178r-956,0"},">":{"d":"70,-135r0,-256r612,-303r-612,-305r0,-254r886,450r0,217","w":1024},"?":{"d":"670,-254r0,254r-271,0r0,-254r271,0xm698,-1008v5,-110,-110,-167,-219,-166v-89,0,-190,25,-303,76r-22,-223v337,-124,831,-101,831,281v0,159,-74,214,-160,323v-89,111,-159,168,-172,328r-235,0v0,-203,55,-271,153,-383v67,-77,122,-123,127,-236","w":1040},"@":{"d":"604,-967v114,-88,324,-80,387,37r17,-80r178,2r-88,463v1,43,4,90,47,86v120,-10,172,-196,172,-319v0,-231,-123,-369,-299,-426v-158,-51,-333,-34,-468,46v-149,88,-278,257,-278,474v0,329,197,553,527,553v148,0,285,-21,411,-64r41,162v-198,64,-522,100,-729,9v-244,-107,-424,-324,-424,-660v0,-332,204,-547,444,-656v161,-72,370,-72,536,-10v232,87,397,279,397,588v0,147,-75,301,-163,379v-53,47,-110,72,-175,72v-76,0,-144,-50,-160,-113v-46,72,-149,129,-258,129v-171,0,-289,-137,-289,-301v0,-159,76,-295,174,-371xm770,-475v117,0,176,-116,176,-230v0,-72,-55,-137,-131,-135v-113,4,-180,106,-180,217v0,84,52,148,135,148","w":1575},"A":{"d":"1407,0r-301,0r-119,-311r-565,0r-117,311r-285,0r533,-1366r307,0xm903,-535r-176,-483v-4,-11,-13,-41,-27,-90v-52,204,-130,381,-194,573r397,0","w":1425},"B":{"d":"813,-713v185,26,317,128,317,336v0,217,-149,339,-336,366v-174,26,-428,8,-628,11r0,-1366v279,7,595,-31,777,76v90,53,138,139,138,268v0,190,-103,273,-268,309xm856,-408v0,-144,-120,-199,-262,-200r-152,0r0,399v205,7,414,-4,414,-199xm807,-981v0,-181,-181,-179,-365,-174r0,342v179,4,365,6,365,-168","w":1233},"C":{"d":"393,-702v0,291,175,483,469,483v90,0,186,-19,289,-57r10,241v-320,94,-666,32,-847,-125v-129,-112,-214,-277,-214,-510v0,-350,161,-571,425,-660v202,-68,412,-61,630,13r-22,234v-90,-49,-188,-74,-293,-74v-278,0,-447,176,-447,455","w":1206},"D":{"d":"164,0r0,-1366r311,0v527,-16,854,169,854,686v0,393,-209,633,-579,670v-181,18,-390,7,-586,10xm440,-211v365,20,594,-128,594,-479v0,-253,-145,-427,-388,-453v-53,-6,-152,-10,-206,-10r0,942","w":1427},"E":{"d":"981,-223r0,223r-817,0r0,-1366r809,0r0,225r-533,0r0,330r488,0r0,223r-488,0r0,365r541,0","w":1100},"F":{"d":"442,-592r0,592r-278,0r0,-1366r758,0r0,225r-482,0r0,324r463,0r0,225r-461,0","w":1006},"G":{"d":"872,-1157v-295,0,-481,165,-481,461v0,225,107,379,268,450v107,47,246,49,365,8r0,-331r-291,0r0,-226r553,0r0,734v-134,47,-281,71,-440,71v-470,0,-748,-227,-748,-696v0,-360,194,-565,474,-648v210,-63,469,-54,677,13r-18,242v-115,-52,-235,-78,-359,-78","w":1430},"H":{"d":"1260,0r-275,0r0,-588r-545,0r0,588r-276,0r0,-1366r276,0r0,555r545,0r0,-555r275,0r0,1366","w":1423},"I":{"d":"453,0r-277,0r0,-1366r277,0r0,1366","w":631},"J":{"d":"158,-229v140,1,178,-94,178,-232r0,-905r274,0r0,932v1,279,-103,445,-381,446v-57,0,-124,-9,-200,-28r6,-234v48,14,89,21,123,21","w":774},"K":{"d":"1298,0r-356,0r-442,-563v-6,-7,-27,-37,-64,-90v14,208,2,435,6,653r-276,0r0,-1366r276,0r0,485v0,37,-2,74,-6,109v39,-53,63,-85,72,-94r426,-500r334,0r-559,631","w":1317},"L":{"d":"973,-223r0,223r-809,0r0,-1366r276,0r0,1143r533,0","w":1008},"M":{"d":"1712,0r-276,0r0,-807v4,-123,10,-246,18,-369r-8,0v-13,54,-27,101,-41,142r-348,1034r-254,0r-295,-854v-37,-107,-68,-214,-94,-322r-8,0v38,387,13,769,20,1176r-262,0r0,-1366r436,0r248,717v39,115,68,227,88,336v12,-57,23,-107,34,-149v11,-42,24,-85,38,-128r262,-776r442,0r0,1366","w":1876},"N":{"d":"1288,0r-332,0r-448,-825v-29,-52,-66,-133,-113,-242v21,142,31,259,31,352r0,715r-262,0r0,-1366r325,0r459,827v47,85,65,155,103,242v-17,-95,-25,-207,-25,-334r0,-735r262,0r0,1366","w":1452},"O":{"d":"98,-684v0,-433,236,-711,670,-711v338,0,537,174,623,431v29,87,43,184,43,290v0,424,-241,705,-666,705v-435,0,-670,-280,-670,-715xm934,-224v170,-103,250,-371,185,-634v-43,-172,-143,-326,-353,-326v-263,0,-375,243,-375,504v0,261,114,500,377,500v63,0,118,-15,166,-44","w":1534},"P":{"d":"1083,-950v0,348,-278,460,-643,432r0,518r-276,0r0,-1366r375,0v321,-9,544,122,544,416xm440,-729v191,2,348,-26,348,-215v0,-194,-147,-211,-348,-213r0,428","w":1124},"Q":{"d":"98,-690v0,-433,239,-705,674,-705v326,0,525,171,616,416v31,85,46,178,46,277v0,323,-118,546,-355,667r326,299r-338,0r-236,-237v-369,27,-597,-148,-689,-428v-29,-89,-44,-186,-44,-289xm981,-256v143,-121,207,-428,119,-668v-51,-139,-158,-260,-336,-260v-313,0,-426,361,-352,677v41,173,143,327,356,327v86,0,155,-27,213,-76","w":1534},"R":{"d":"1104,-1006v0,181,-114,299,-277,322v101,39,124,101,168,207r197,477r-307,0r-150,-387v-49,-140,-106,-184,-293,-180r0,567r-278,0r0,-1366r448,0v278,1,492,78,492,360xm440,-778v190,9,369,-9,369,-189v0,-124,-74,-186,-223,-186r-146,0r0,375","w":1221},"S":{"d":"618,-1184v-112,0,-219,49,-219,164v0,54,16,91,49,111v33,20,106,56,222,107v116,51,199,107,256,162v92,90,103,306,41,435v-118,246,-518,290,-824,174r25,-245v108,59,211,88,309,88v121,0,238,-62,238,-185v0,-61,-21,-105,-61,-131v-40,-26,-113,-62,-219,-108v-106,-46,-186,-96,-239,-152v-53,-56,-79,-137,-79,-242v0,-270,212,-389,481,-389v115,0,224,18,326,54r-23,225v-99,-45,-194,-68,-283,-68","w":1106},"T":{"d":"684,0r-276,0r0,-1141r-390,0r0,-225r1059,0r0,225r-393,0r0,1141"},"U":{"d":"733,-188v221,-1,280,-167,281,-387r0,-789r266,0r0,827v0,376,-174,568,-551,568v-384,0,-565,-186,-565,-570r0,-825r276,0r0,801v3,220,70,376,293,375","w":1444},"V":{"d":"834,0r-338,0r-476,-1366r295,0r291,879v24,68,46,141,66,219v22,-88,45,-168,69,-240r283,-858r274,0","w":1317},"W":{"d":"1591,0r-350,0r-198,-845v-14,-65,-24,-115,-31,-151v-7,-36,-15,-85,-23,-145r-8,0v-19,167,-63,349,-98,504r-144,637r-354,0r-367,-1366r285,0r131,522v64,227,107,425,129,596r8,0r93,-500r139,-618r368,0r136,559v53,217,91,404,112,559r8,0v9,-62,21,-131,36,-207v15,-76,31,-156,51,-239r167,-672r271,0","w":1970},"X":{"d":"1298,0r-325,0r-320,-537r-323,537r-310,0r451,-717r-410,-649r318,0r291,483r293,-483r292,0r-413,649","w":1317},"Y":{"d":"795,0r-277,0r0,-545r-500,-821r322,0r293,510v11,18,21,39,31,63v7,-17,14,-38,28,-61r301,-512r295,0r-493,813r0,553","w":1307},"Z":{"d":"721,-1147v-31,8,-60,6,-94,6r-541,0r0,-225r913,0r0,256r-571,817v-19,29,-40,54,-63,76v208,-15,439,-2,657,-6r0,223r-954,0r0,-236r610,-868v13,-17,28,-31,43,-43","w":1094},"[":{"d":"166,416r0,-1891r436,0r0,181r-196,0r0,1525r196,0r0,185r-436,0","w":750},"\\":{"d":"745,416r-663,-1891r217,0r666,1891r-220,0","w":893},"]":{"d":"344,231r0,-1525r-197,0r0,-181r437,0r0,1891r-437,0r0,-185r197,0","w":750},"^":{"d":"283,-688r-271,0r330,-684r340,0r332,684r-273,0r-229,-477","w":1024},"_":{"d":"0,96r1024,0r0,234r-1024,0r0,-234","w":1024},"`":{"d":"633,-1171r-166,0r-268,-285r268,0","w":1024},"a":{"d":"729,-623v-1,-152,-72,-223,-225,-223v-116,0,-221,37,-314,111r-8,-228v225,-103,598,-95,722,78v78,109,62,303,66,488v1,67,1,128,2,183v1,55,3,126,7,214r-234,0r-4,-152v-55,99,-171,168,-315,168v-209,0,-352,-106,-352,-315v0,-127,50,-212,149,-260v130,-63,317,-79,506,-64xm334,-293v-2,80,78,131,158,131v160,0,241,-142,241,-299v-180,-6,-392,-6,-399,168","w":1102},"b":{"d":"1120,-528v0,308,-112,544,-418,544v-150,0,-256,-59,-319,-176r-6,160r-246,0r0,-1475r262,0r0,451v0,73,-3,135,-10,188v64,-122,158,-196,330,-196v223,0,333,136,383,312v16,60,24,124,24,192xm627,-190v158,-4,221,-160,221,-316v0,-152,-63,-307,-217,-307v-159,0,-236,160,-236,315v0,155,74,313,232,308","w":1198},"c":{"d":"348,-514v0,179,116,305,295,303v57,0,116,-14,176,-41r15,221v-238,80,-490,27,-616,-100v-86,-87,-142,-215,-142,-381v0,-313,201,-510,512,-510v73,0,148,11,223,33r-20,211v-225,-100,-443,28,-443,264","w":883},"d":{"d":"500,16v-300,0,-426,-227,-426,-526v0,-288,130,-522,420,-522v158,0,254,75,315,186v-20,-183,-6,-426,-10,-629r262,0r0,1180r8,295r-248,0r-4,-172v-53,111,-164,188,-317,188xm571,-190v160,-5,232,-147,232,-310v0,-166,-72,-309,-236,-313v-163,-4,-220,148,-221,309v-1,149,74,319,225,314","w":1202},"e":{"d":"332,-422v10,156,136,255,301,254v93,0,198,-34,315,-102r4,227v-165,73,-393,99,-570,35v-193,-70,-308,-237,-308,-498v0,-249,109,-416,286,-494v62,-27,131,-40,209,-40v340,0,476,264,445,618r-682,0xm770,-604v-6,-140,-66,-252,-209,-252v-150,0,-219,113,-233,252r442,0","w":1096},"f":{"d":"397,0r-262,0r0,-813r-203,0r0,-195r203,0v-4,-230,31,-373,187,-440v94,-40,211,-43,317,-14r-16,211v-62,-22,-142,-18,-177,25v-45,55,-47,118,-49,218r230,0r0,195r-230,0r0,813","w":664},"g":{"d":"487,-1032v159,0,267,68,322,182r4,-162r250,0r0,889v-2,366,-159,555,-528,555v-119,0,-237,-24,-355,-72r21,-227v129,67,317,123,470,47v128,-65,146,-183,146,-383v-58,111,-180,203,-336,203v-284,0,-407,-233,-407,-516v0,-287,125,-516,413,-516xm569,-213v162,-4,234,-147,234,-305v0,-160,-75,-291,-234,-297v-152,-6,-223,145,-223,295v0,147,73,311,223,307","w":1186},"h":{"d":"715,-1032v272,-1,350,174,350,450r0,582r-262,0r0,-492v-6,-177,-8,-320,-180,-321v-191,-1,-228,198,-228,397r0,416r-262,0r0,-1475r262,0r0,605v69,-99,166,-161,320,-162","w":1190},"i":{"d":"395,0r-262,0r0,-1014r262,0r0,1014xm399,-1198r-270,0r0,-248r270,0r0,248","w":528},"j":{"d":"-16,221v120,17,163,-70,163,-194r0,-1041r263,0r0,1075v0,221,-97,363,-318,363v-40,0,-80,-4,-119,-12xm414,-1196r-271,0r0,-250r271,0r0,250","w":541},"k":{"d":"1073,0r-332,0r-262,-371v-31,-45,-61,-93,-90,-145v12,162,3,344,6,516r-262,0r0,-1475r262,0r0,684v0,67,-2,134,-6,201v107,-161,216,-277,330,-424r305,0r-377,453","w":1079},"l":{"d":"393,0r-262,0r0,-1475r262,0r0,1475","w":526},"m":{"d":"604,-813v-151,0,-201,157,-201,305r0,508r-262,0r0,-766v0,-93,-3,-175,-8,-248r250,0r6,154v57,-96,171,-170,313,-170v155,0,235,65,287,180v60,-105,171,-178,322,-180v263,-2,321,182,321,442r0,588r-262,0r0,-532v-5,-147,-12,-280,-153,-281v-133,0,-199,115,-199,344r0,469r-262,0r0,-592v-1,-111,-37,-221,-152,-221","w":1755},"n":{"d":"629,-813v-171,0,-223,164,-223,332r0,481r-263,0r0,-645v0,-143,-3,-266,-10,-369r248,0r6,162v81,-119,195,-178,342,-178v283,-1,346,178,346,459r0,571r-262,0r0,-510v-5,-167,-19,-303,-184,-303","w":1198},"o":{"d":"598,27v-327,0,-524,-214,-524,-539v0,-323,203,-528,526,-528v259,0,417,135,490,326v49,129,49,303,-2,430v-75,187,-235,311,-490,311xm346,-512v0,182,74,344,258,344v177,0,250,-157,250,-336v0,-177,-76,-342,-254,-342v-172,0,-254,162,-254,334","w":1202},"p":{"d":"709,16v-138,0,-254,-65,-308,-159v10,156,3,386,5,559r-263,0r0,-1135v0,-116,-3,-215,-10,-297r252,0r4,160v100,-166,326,-228,513,-134v150,75,228,250,228,470v0,300,-121,536,-421,536xm633,-193v161,-3,225,-153,225,-311v0,-166,-54,-309,-219,-309v-165,0,-233,147,-233,311v0,159,66,313,227,309","w":1206},"q":{"d":"496,-1032v153,0,261,69,315,178r6,-162r248,0r0,1432r-262,0r0,-404v0,-67,3,-127,8,-180v-46,109,-160,182,-307,184v-291,4,-431,-243,-428,-532v3,-285,131,-516,420,-516xm578,-190v151,0,230,-160,227,-308v-3,-163,-73,-311,-238,-315v-157,-4,-219,154,-219,307v0,167,61,316,230,316","w":1196},"r":{"d":"647,-780v-194,2,-244,163,-244,362r0,418r-262,0r0,-709v-3,-169,-6,-270,-8,-305r238,0r6,256v43,-163,154,-302,362,-254r0,246v-35,-9,-65,-14,-92,-14","w":768},"s":{"d":"803,-305v-4,226,-194,323,-420,323v-81,0,-180,-15,-295,-45r12,-221v93,48,179,72,258,72v79,0,181,-34,181,-115v0,-34,-28,-62,-83,-87v-161,-74,-372,-111,-372,-345v0,-224,205,-309,428,-309v74,0,157,13,250,39r-19,196v-81,-26,-153,-39,-215,-39v-81,1,-186,22,-184,103v0,33,27,59,80,81v165,70,383,105,379,347","w":881},"t":{"d":"459,-444v5,147,6,240,151,241v25,0,55,-5,90,-14r9,205v-67,13,-126,20,-177,20v-253,2,-339,-144,-339,-397r0,-424r-191,0r0,-195r195,0r0,-206r262,-86r0,292r231,0r0,195r-231,0r0,369","w":756},"u":{"d":"571,-203v167,5,211,-170,211,-336r0,-475r262,0r0,619r15,395r-248,0r-8,-156v-62,99,-169,170,-320,172v-279,4,-358,-180,-358,-458r0,-572r262,0r0,488v-2,177,16,318,184,323","w":1190},"v":{"d":"692,0r-293,0r-379,-1014r287,0r170,488v45,125,72,225,82,301v62,-278,166,-526,246,-789r264,0","w":1087},"w":{"d":"1729,-1014r-314,1014r-305,0r-127,-393v-50,-169,-77,-241,-100,-412v-8,45,-16,86,-25,123r-67,266r-127,416r-302,0r-344,-1014r277,0v77,241,196,566,229,809v43,-296,137,-541,211,-809r303,0v74,254,187,534,228,805v38,-274,139,-550,209,-805r254,0","w":1749},"x":{"d":"1081,0r-315,0r-227,-379v-6,14,-21,40,-45,78r-185,301r-289,0r353,-526r-320,-488r309,0r205,334r43,-76r156,-258r276,0r-307,488","w":1100},"y":{"d":"86,401r18,-198v83,33,183,31,236,-24v30,-31,56,-73,78,-128r-400,-1067r291,0r252,756r49,-168r197,-588r266,0r-403,1086v-59,145,-97,242,-214,312v-103,62,-227,56,-370,19","w":1094},"z":{"d":"913,-201r0,201r-845,0r0,-201r421,-506v21,-25,59,-65,115,-118r-131,4r-381,0r0,-193r803,0r0,203r-426,512v-31,37,-67,74,-109,111v148,-20,376,-11,553,-13","w":987},"{":{"d":"403,-786v0,141,-36,201,-124,258v95,59,120,113,124,258v4,140,-20,332,17,438v23,65,79,62,180,65r0,183v-194,1,-352,-4,-408,-141v-17,-40,-26,-91,-26,-154r0,-373v-2,-105,-23,-168,-113,-186r0,-183v83,-19,113,-85,113,-184r0,-377v-9,-257,173,-306,434,-293r0,181v-86,1,-162,-5,-181,53v-36,110,-16,311,-16,455","w":750},"|":{"d":"381,-1364r260,0r0,1706r-260,0r0,-1706","w":1024},"}":{"d":"346,-272v0,-143,37,-201,125,-258v-86,-57,-125,-119,-125,-258v0,-140,20,-333,-16,-440v-22,-65,-79,-64,-180,-66r0,-181v266,-8,436,28,436,293r0,375v2,102,22,170,110,186r0,183v-84,19,-110,83,-110,184r0,375v7,264,-169,303,-436,295r0,-183v89,9,173,-4,186,-72v22,-112,10,-298,10,-433","w":750},"~":{"d":"313,-633v-91,0,-113,57,-155,125r-144,-94v35,-86,74,-153,116,-202v42,-49,101,-77,175,-79v159,-4,256,101,412,101v55,0,104,-35,145,-105r148,86v-41,83,-86,149,-135,198v-49,49,-112,73,-189,73v-137,-1,-236,-103,-373,-103","w":1024},"\u00c7":{"d":"397,-698v0,292,174,481,467,481v90,0,186,-19,289,-57r10,241v-103,30,-210,45,-321,45r-82,121v115,-31,245,7,244,123v-2,196,-284,222,-445,141r37,-82v55,23,102,35,139,35v50,0,110,-23,107,-76v-3,-76,-107,-81,-172,-53r-31,-51r104,-160v-383,-49,-641,-255,-641,-678v0,-460,267,-704,725,-704v99,0,209,20,330,59r-22,232v-91,-47,-188,-70,-291,-70v-278,0,-447,173,-447,453","w":1208},"\u00d6":{"d":"98,-684v0,-433,236,-711,670,-711v338,0,537,174,623,431v29,87,43,184,43,290v0,424,-241,705,-666,705v-435,0,-670,-280,-670,-715xm934,-224v170,-103,250,-371,185,-634v-43,-172,-143,-326,-353,-326v-263,0,-375,243,-375,504v0,261,114,500,377,500v63,0,118,-15,166,-44xm1079,-1493r-221,0r0,-229r221,0r0,229xm678,-1493r-223,0r0,-229r223,0r0,229","w":1534},"\u00dc":{"d":"733,-188v221,-1,280,-167,281,-387r0,-789r266,0r0,827v0,376,-174,568,-551,568v-384,0,-565,-186,-565,-570r0,-825r276,0r0,801v3,220,70,376,293,375xm1034,-1493r-221,0r0,-229r221,0r0,229xm633,-1493r-223,0r0,-229r223,0r0,229","w":1444},"\u00e7":{"d":"348,-512v0,187,109,307,295,307v51,0,110,-15,176,-45r15,221v-96,25,-170,37,-222,37r-86,125v119,-31,246,7,246,123v0,195,-285,222,-444,141r37,-82v55,23,101,35,137,35v51,0,110,-23,108,-76v-3,-76,-106,-81,-172,-53r-30,-51r108,-166v-263,-29,-443,-231,-440,-516v2,-245,121,-403,304,-473v137,-52,274,-46,431,-4r-20,211v-57,-22,-111,-33,-164,-33v-172,0,-279,127,-279,299","w":883},"\u00f6":{"d":"598,27v-327,0,-524,-214,-524,-539v0,-323,203,-528,526,-528v259,0,417,135,490,326v49,129,49,303,-2,430v-75,187,-235,311,-490,311xm346,-512v0,182,74,344,258,344v177,0,250,-157,250,-336v0,-177,-76,-342,-254,-342v-172,0,-254,162,-254,334xm913,-1217r-221,0r0,-229r221,0r0,229xm512,-1217r-223,0r0,-229r223,0r0,229","w":1202},"\u00fc":{"d":"571,-203v167,5,211,-170,211,-336r0,-475r262,0r0,619r15,395r-248,0r-8,-156v-62,99,-169,170,-320,172v-279,4,-358,-180,-358,-458r0,-572r262,0r0,488v-2,177,16,318,184,323xm907,-1219r-221,0r0,-229r221,0r0,229xm506,-1219r-223,0r0,-229r223,0r0,229","w":1190},"\u0131":{"d":"395,0r-262,0r0,-1014r262,0r0,1014","w":528},"\u00a0":{"w":569}}});


